-1.20427123442
-0.00424628826209
-0.964278197935
0.244331250746
-0.288361816768
2.10331453187
1.54719783793
-0.658764513145
-0.279464443265
-0.239199110854
0.626246546816
0.440893228302
0.473173577324
-1.05978067597
-0.262451719579
-2.21658810993
-2.15768401141
0.145261082528
0.991536326011
-0.0736698964158
1.84804953828
1.63938467372
-0.834576894308
2.50325730411
2.14284995071
0.143765814209
1.50359473634
1.22069882314
0.350053746782
0.524158583252
1.04273282167
-1.80564022242
-0.0725532272597
0.771179844162
-0.550706391542
0.363486090709
1.69230357299
1.20251076086
-0.00554224349246
0.962074784256
-0.2409875051
0.289124899972
-2.10232633516
-1.54669120246
0.659005070648
0.281563336586
0.238999978889
-0.622895589472
-0.441386568922
-0.474736885751
1.05943876453
0.264183110881
2.21908409518
2.15827013768
-0.142943837766
-0.990326995619
0.0753422975565
-1.84610648642
-1.64165804177
0.834746087351
-2.50219968992
-2.1421926446
-0.142191932695
-1.50371336742
-1.21985971962
-0.350600031229
-0.523680717768
-1.04185239539
1.80382544127
0.0763526628852
-0.77636893571
0.55016715994
-0.362973620148
-1.69245645096
